<?xml version="1.0"?>
<opencv_storage>
<stage19>
  <maxWeakCount>6</maxWeakCount>
  <stageThreshold>-4.4124081730842590e-01</stageThreshold>
  <weakClassifiers>
    <_>
      <internalNodes>
        0 -1 56688 -9.0407242532819510e-04</internalNodes>
      <leafValues>
        7.5000000000000000e-01 -1.4970059692859650e-01</leafValues></_>
    <_>
      <internalNodes>
        0 -1 161965 -1.8381275003775954e-03</internalNodes>
      <leafValues>
        -7.2148442268371582e-01 2.7671042084693909e-01</leafValues></_>
    <_>
      <internalNodes>
        0 -1 128847 -1.3735985383391380e-02</internalNodes>
      <leafValues>
        5.6682062149047852e-01 -3.3227181434631348e-01</leafValues></_>
    <_>
      <internalNodes>
        0 -1 29007 2.9622394591569901e-02</internalNodes>
      <leafValues>
        -3.9394608139991760e-01 6.9991379976272583e-01</leafValues></_>
    <_>
      <internalNodes>
        0 -1 88954 1.8542155157774687e-03</internalNodes>
      <leafValues>
        -2.6269149780273438e-01 5.7572305202484131e-01</leafValues></_>
    <_>
      <internalNodes>
        0 -1 145411 -2.0195655524730682e-03</internalNodes>
      <leafValues>
        7.3890197277069092e-01 -3.1865340471267700e-01</leafValues></_></weakClassifiers></stage19>
</opencv_storage>
