<?xml version="1.0"?>
<opencv_storage>
<stage21>
  <maxWeakCount>10</maxWeakCount>
  <stageThreshold>-6.0167139768600464e-01</stageThreshold>
  <weakClassifiers>
    <_>
      <internalNodes>
        0 -1 12398 -8.9139662683010101e-02</internalNodes>
      <leafValues>
        6.0396039485931396e-01 -2.3188406229019165e-01</leafValues></_>
    <_>
      <internalNodes>
        0 -1 99108 8.1243142485618591e-03</internalNodes>
      <leafValues>
        1.7667904496192932e-01 -9.2221438884735107e-01</leafValues></_>
    <_>
      <internalNodes>
        0 -1 161412 2.9675113037228584e-03</internalNodes>
      <leafValues>
        1.9952119886875153e-01 -6.6390442848205566e-01</leafValues></_>
    <_>
      <internalNodes>
        0 -1 143678 -4.9543231725692749e-03</internalNodes>
      <leafValues>
        4.8484402894973755e-01 -3.1458172202110291e-01</leafValues></_>
    <_>
      <internalNodes>
        0 -1 127716 -1.6989174764603376e-03</internalNodes>
      <leafValues>
        5.6832760572433472e-01 -3.0845206975936890e-01</leafValues></_>
    <_>
      <internalNodes>
        0 -1 120917 2.7455328963696957e-03</internalNodes>
      <leafValues>
        2.2377723455429077e-01 -9.0287256240844727e-01</leafValues></_>
    <_>
      <internalNodes>
        0 -1 37232 3.6295829340815544e-03</internalNodes>
      <leafValues>
        -4.5863166451454163e-01 3.2988756895065308e-01</leafValues></_>
    <_>
      <internalNodes>
        0 -1 132990 -4.1676945984363556e-03</internalNodes>
      <leafValues>
        5.5047291517257690e-01 -2.9052299261093140e-01</leafValues></_>
    <_>
      <internalNodes>
        0 -1 154149 -2.0823967643082142e-03</internalNodes>
      <leafValues>
        7.1292841434478760e-01 -2.5863960385322571e-01</leafValues></_>
    <_>
      <internalNodes>
        0 -1 64290 5.4065231233835220e-03</internalNodes>
      <leafValues>
        -2.1571645140647888e-01 7.6319843530654907e-01</leafValues></_></weakClassifiers></stage21>
</opencv_storage>
