<?xml version="1.0"?>
<opencv_storage>
<stage20>
  <maxWeakCount>7</maxWeakCount>
  <stageThreshold>-4.3829113245010376e-01</stageThreshold>
  <weakClassifiers>
    <_>
      <internalNodes>
        0 -1 574 -2.6158088818192482e-02</internalNodes>
      <leafValues>
        8.5964912176132202e-01 -1.0989011079072952e-01</leafValues></_>
    <_>
      <internalNodes>
        0 -1 90346 7.0304289460182190e-02</internalNodes>
      <leafValues>
        -1.4775656163692474e-01 8.4030246734619141e-01</leafValues></_>
    <_>
      <internalNodes>
        0 -1 54316 -8.5147423669695854e-04</internalNodes>
      <leafValues>
        5.6206101179122925e-01 -2.1861025691032410e-01</leafValues></_>
    <_>
      <internalNodes>
        0 -1 150681 -3.7964950315654278e-03</internalNodes>
      <leafValues>
        6.6782617568969727e-01 -2.6929202675819397e-01</leafValues></_>
    <_>
      <internalNodes>
        0 -1 68539 -1.3147054240107536e-02</internalNodes>
      <leafValues>
        4.1451767086982727e-01 -4.1351708769798279e-01</leafValues></_>
    <_>
      <internalNodes>
        0 -1 66719 -1.5837592072784901e-03</internalNodes>
      <leafValues>
        5.9090876579284668e-01 -3.2352516055107117e-01</leafValues></_>
    <_>
      <internalNodes>
        0 -1 14507 -2.3154676891863346e-03</internalNodes>
      <leafValues>
        -7.1411544084548950e-01 2.6362887024879456e-01</leafValues></_></weakClassifiers></stage20>
</opencv_storage>
