<?xml version="1.0"?>
<opencv_storage>
<stage10>
  <maxWeakCount>8</maxWeakCount>
  <stageThreshold>-6.8130975961685181e-01</stageThreshold>
  <weakClassifiers>
    <_>
      <internalNodes>
        0 -1 2373 -7.8348862007260323e-03</internalNodes>
      <leafValues>
        -5.7377046346664429e-01 3.5955056548118591e-01</leafValues></_>
    <_>
      <internalNodes>
        0 -1 91624 -1.4784072339534760e-01</internalNodes>
      <leafValues>
        7.9627770185470581e-01 -2.2960583865642548e-01</leafValues></_>
    <_>
      <internalNodes>
        0 -1 90398 -4.6737186610698700e-02</internalNodes>
      <leafValues>
        7.7743327617645264e-01 -2.2114327549934387e-01</leafValues></_>
    <_>
      <internalNodes>
        0 -1 400 7.9977130517363548e-03</internalNodes>
      <leafValues>
        2.8429254889488220e-01 -8.3016127347946167e-01</leafValues></_>
    <_>
      <internalNodes>
        0 -1 141918 -9.6745342016220093e-03</internalNodes>
      <leafValues>
        6.5138596296310425e-01 -2.8845751285552979e-01</leafValues></_>
    <_>
      <internalNodes>
        0 -1 13157 1.8052443861961365e-02</internalNodes>
      <leafValues>
        -3.9371684193611145e-01 5.1759517192840576e-01</leafValues></_>
    <_>
      <internalNodes>
        0 -1 159651 -7.9535646364092827e-04</internalNodes>
      <leafValues>
        -5.4218620061874390e-01 4.3926221132278442e-01</leafValues></_>
    <_>
      <internalNodes>
        0 -1 19165 -2.0580657292157412e-05</internalNodes>
      <leafValues>
        3.8613879680633545e-01 -5.1561433076858521e-01</leafValues></_></weakClassifiers></stage10>
</opencv_storage>
