<?xml version="1.0"?>
<opencv_storage>
<stage25>
  <maxWeakCount>11</maxWeakCount>
  <stageThreshold>-2.6635035872459412e-01</stageThreshold>
  <weakClassifiers>
    <_>
      <internalNodes>
        0 -1 77357 -3.2911952584981918e-03</internalNodes>
      <leafValues>
        5.6701028347015381e-01 -1.8309858441352844e-01</leafValues></_>
    <_>
      <internalNodes>
        0 -1 156825 3.5794710274785757e-03</internalNodes>
      <leafValues>
        -1.9207426905632019e-01 6.6818016767501831e-01</leafValues></_>
    <_>
      <internalNodes>
        0 -1 106565 1.6446879599243402e-03</internalNodes>
      <leafValues>
        -1.9849678874015808e-01 7.7792757749557495e-01</leafValues></_>
    <_>
      <internalNodes>
        0 -1 48804 -3.7550281267613173e-03</internalNodes>
      <leafValues>
        5.5862838029861450e-01 -2.5415012240409851e-01</leafValues></_>
    <_>
      <internalNodes>
        0 -1 162109 -4.0463618934154510e-03</internalNodes>
      <leafValues>
        -7.4998086690902710e-01 2.5809788703918457e-01</leafValues></_>
    <_>
      <internalNodes>
        0 -1 150306 -3.3737302292138338e-03</internalNodes>
      <leafValues>
        6.5882784128189087e-01 -2.5168296694755554e-01</leafValues></_>
    <_>
      <internalNodes>
        0 -1 54451 -1.6440223902463913e-02</internalNodes>
      <leafValues>
        6.2758284807205200e-01 -2.7323326468467712e-01</leafValues></_>
    <_>
      <internalNodes>
        0 -1 153349 -1.1821377556771040e-03</internalNodes>
      <leafValues>
        5.8785772323608398e-01 -2.5588375329971313e-01</leafValues></_>
    <_>
      <internalNodes>
        0 -1 141879 -5.7903118431568146e-03</internalNodes>
      <leafValues>
        -9.2062079906463623e-01 2.0968841016292572e-01</leafValues></_>
    <_>
      <internalNodes>
        0 -1 10575 6.6264568886253983e-05</internalNodes>
      <leafValues>
        -4.1319280862808228e-01 4.0828108787536621e-01</leafValues></_>
    <_>
      <internalNodes>
        0 -1 148324 4.9080955795943737e-04</internalNodes>
      <leafValues>
        -3.0617451667785645e-01 5.3835797309875488e-01</leafValues></_></weakClassifiers></stage25>
</opencv_storage>
