<?xml version="1.0"?>
<opencv_storage>
<stage29>
  <maxWeakCount>7</maxWeakCount>
  <stageThreshold>-6.8365997076034546e-01</stageThreshold>
  <weakClassifiers>
    <_>
      <internalNodes>
        0 -1 121051 -2.5325980968773365e-03</internalNodes>
      <leafValues>
        -8.5714286565780640e-01 2.5118482112884521e-01</leafValues></_>
    <_>
      <internalNodes>
        0 -1 89376 -1.4617200940847397e-02</internalNodes>
      <leafValues>
        7.4688762426376343e-01 -2.0295448601245880e-01</leafValues></_>
    <_>
      <internalNodes>
        0 -1 70798 7.1561470394954085e-04</internalNodes>
      <leafValues>
        2.6215851306915283e-01 -5.8751052618026733e-01</leafValues></_>
    <_>
      <internalNodes>
        0 -1 70658 3.2857977785170078e-03</internalNodes>
      <leafValues>
        -2.5725859403610229e-01 6.7743158340454102e-01</leafValues></_>
    <_>
      <internalNodes>
        0 -1 144271 3.6932960152626038e-02</internalNodes>
      <leafValues>
        -1.5659186244010925e-01 8.3980911970138550e-01</leafValues></_>
    <_>
      <internalNodes>
        0 -1 13435 3.1364579626824707e-05</internalNodes>
      <leafValues>
        -3.6126041412353516e-01 4.2003956437110901e-01</leafValues></_>
    <_>
      <internalNodes>
        0 -1 146892 1.9308546325191855e-04</internalNodes>
      <leafValues>
        -3.6566993594169617e-01 4.4119578599929810e-01</leafValues></_></weakClassifiers></stage29>
</opencv_storage>
