<?xml version="1.0"?>
<opencv_storage>
<stage24>
  <maxWeakCount>9</maxWeakCount>
  <stageThreshold>-3.7167507410049438e-01</stageThreshold>
  <weakClassifiers>
    <_>
      <internalNodes>
        0 -1 146276 8.3426916971802711e-03</internalNodes>
      <leafValues>
        -1.5584415197372437e-01 6.2352943420410156e-01</leafValues></_>
    <_>
      <internalNodes>
        0 -1 46945 5.1295034587383270e-02</internalNodes>
      <leafValues>
        -1.6279581189155579e-01 7.7411144971847534e-01</leafValues></_>
    <_>
      <internalNodes>
        0 -1 151293 -1.0122095700353384e-03</internalNodes>
      <leafValues>
        5.5018299818038940e-01 -2.9081681370735168e-01</leafValues></_>
    <_>
      <internalNodes>
        0 -1 84771 -6.1801075935363770e-04</internalNodes>
      <leafValues>
        5.5659890174865723e-01 -2.8522756695747375e-01</leafValues></_>
    <_>
      <internalNodes>
        0 -1 157479 -4.5576789416372776e-03</internalNodes>
      <leafValues>
        6.3822728395462036e-01 -1.9642435014247894e-01</leafValues></_>
    <_>
      <internalNodes>
        0 -1 144116 -4.7846121015027165e-04</internalNodes>
      <leafValues>
        -7.3468989133834839e-01 2.2845666110515594e-01</leafValues></_>
    <_>
      <internalNodes>
        0 -1 9604 -4.7024115920066833e-03</internalNodes>
      <leafValues>
        5.3016382455825806e-01 -3.2037320733070374e-01</leafValues></_>
    <_>
      <internalNodes>
        0 -1 64277 1.3250119518488646e-03</internalNodes>
      <leafValues>
        -2.9755923151969910e-01 6.5056556463241577e-01</leafValues></_>
    <_>
      <internalNodes>
        0 -1 118560 -1.5750799793750048e-03</internalNodes>
      <leafValues>
        3.9640453457832336e-01 -4.3716666102409363e-01</leafValues></_></weakClassifiers></stage24>
</opencv_storage>
