<?xml version="1.0"?>
<opencv_storage>
<stage7>
  <maxWeakCount>6</maxWeakCount>
  <stageThreshold>-6.5445053577423096e-01</stageThreshold>
  <weakClassifiers>
    <_>
      <internalNodes>
        0 -1 1200 -5.0154021009802818e-03</internalNodes>
      <leafValues>
        -7.5862067937850952e-01 4.0331491827964783e-01</leafValues></_>
    <_>
      <internalNodes>
        0 -1 123836 -1.3355434930417687e-05</internalNodes>
      <leafValues>
        5.4287892580032349e-01 -4.8873925209045410e-01</leafValues></_>
    <_>
      <internalNodes>
        0 -1 69003 -2.8601191937923431e-02</internalNodes>
      <leafValues>
        6.5615534782409668e-01 -3.4487348794937134e-01</leafValues></_>
    <_>
      <internalNodes>
        0 -1 69257 -9.5746159786358476e-05</internalNodes>
      <leafValues>
        5.4220598936080933e-01 -3.7659659981727600e-01</leafValues></_>
    <_>
      <internalNodes>
        0 -1 32626 -1.1492239311337471e-02</internalNodes>
      <leafValues>
        8.1309241056442261e-01 -2.7336910367012024e-01</leafValues></_>
    <_>
      <internalNodes>
        0 -1 56048 -8.3811189979314804e-03</internalNodes>
      <leafValues>
        6.4053618907928467e-01 -3.6267220973968506e-01</leafValues></_></weakClassifiers></stage7>
</opencv_storage>
