<?xml version="1.0"?>
<opencv_storage>
<stage18>
  <maxWeakCount>8</maxWeakCount>
  <stageThreshold>-5.6068348884582520e-01</stageThreshold>
  <weakClassifiers>
    <_>
      <internalNodes>
        0 -1 5154 -1.3313408941030502e-02</internalNodes>
      <leafValues>
        6.7058825492858887e-01 -1.8181818723678589e-01</leafValues></_>
    <_>
      <internalNodes>
        0 -1 22691 -3.7958323955535889e-03</internalNodes>
      <leafValues>
        -7.4432456493377686e-01 2.0509211719036102e-01</leafValues></_>
    <_>
      <internalNodes>
        0 -1 127676 -1.2442094273865223e-02</internalNodes>
      <leafValues>
        7.2894412279129028e-01 -2.0072713494300842e-01</leafValues></_>
    <_>
      <internalNodes>
        0 -1 9523 -4.7596648801118135e-04</internalNodes>
      <leafValues>
        -6.0084968805313110e-01 2.4467614293098450e-01</leafValues></_>
    <_>
      <internalNodes>
        0 -1 18154 -9.8134297877550125e-03</internalNodes>
      <leafValues>
        4.6119970083236694e-01 -3.5754483938217163e-01</leafValues></_>
    <_>
      <internalNodes>
        0 -1 76277 -4.8484234139323235e-04</internalNodes>
      <leafValues>
        6.0237967967987061e-01 -3.2140949368476868e-01</leafValues></_>
    <_>
      <internalNodes>
        0 -1 133694 -1.4642297173850238e-04</internalNodes>
      <leafValues>
        5.3849244117736816e-01 -3.5453987121582031e-01</leafValues></_>
    <_>
      <internalNodes>
        0 -1 75094 5.2359428082127124e-05</internalNodes>
      <leafValues>
        -4.0029191970825195e-01 4.7023475170135498e-01</leafValues></_></weakClassifiers></stage18>
</opencv_storage>
